digraph Tree {
node [shape=box, fontname="helvetica"] ;
edge [fontname="helvetica"] ;
0 [label="grade <= 61.0\nsquared_error = 163.42\nsamples = 97\nvalue = 91.66"] ;
1 [label="Q_4 <= 0.406\nsquared_error = 216.889\nsamples = 3\nvalue = 32.333"] ;
0 -> 1 [labeldistance=2.5, labelangle=45, headlabel="True"] ;
2 [label="squared_error = 0.0\nsamples = 1\nvalue = 51.0"] ;
1 -> 2 ;
3 [label="Q_5 <= 0.246\nsquared_error = 64.0\nsamples = 2\nvalue = 23.0"] ;
1 -> 3 ;
4 [label="squared_error = 0.0\nsamples = 1\nvalue = 31.0"] ;
3 -> 4 ;
5 [label="squared_error = 0.0\nsamples = 1\nvalue = 15.0"] ;
3 -> 5 ;
6 [label="grade <= 90.5\nsquared_error = 45.8\nsamples = 94\nvalue = 93.553"] ;
0 -> 6 [labeldistance=2.5, labelangle=-45, headlabel="False"] ;
7 [label="grade <= 81.0\nsquared_error = 26.247\nsamples = 27\nvalue = 84.444"] ;
6 -> 7 ;
8 [label="#user_prompts <= 11.5\nsquared_error = 10.64\nsamples = 5\nvalue = 75.4"] ;
7 -> 8 ;
9 [label="Q_6 <= 0.152\nsquared_error = 1.0\nsamples = 2\nvalue = 79.0"] ;
8 -> 9 ;
10 [label="squared_error = 0.0\nsamples = 1\nvalue = 78.0"] ;
9 -> 10 ;
11 [label="squared_error = 0.0\nsamples = 1\nvalue = 80.0"] ;
9 -> 11 ;
12 [label="prompt_avg_chars <= 45.686\nsquared_error = 2.667\nsamples = 3\nvalue = 73.0"] ;
8 -> 12 ;
13 [label="squared_error = 0.0\nsamples = 1\nvalue = 75.0"] ;
12 -> 13 ;
14 [label="#error <= 1.0\nsquared_error = 1.0\nsamples = 2\nvalue = 72.0"] ;
12 -> 14 ;
15 [label="squared_error = 0.0\nsamples = 1\nvalue = 73.0"] ;
14 -> 15 ;
16 [label="squared_error = 0.0\nsamples = 1\nvalue = 71.0"] ;
14 -> 16 ;
17 [label="grade <= 87.0\nsquared_error = 6.977\nsamples = 22\nvalue = 86.5"] ;
7 -> 17 ;
18 [label="grade <= 84.5\nsquared_error = 1.325\nsamples = 13\nvalue = 84.462"] ;
17 -> 18 ;
19 [label="prompt_avg_chars <= 156.069\nsquared_error = 0.531\nsamples = 7\nvalue = 83.571"] ;
18 -> 19 ;
20 [label="prompt_avg_chars <= 146.958\nsquared_error = 0.25\nsamples = 2\nvalue = 82.5"] ;
19 -> 20 ;
21 [label="squared_error = 0.0\nsamples = 1\nvalue = 82.0"] ;
20 -> 21 ;
22 [label="squared_error = 0.0\nsamples = 1\nvalue = 83.0"] ;
20 -> 22 ;
23 [label="squared_error = 0.0\nsamples = 5\nvalue = 84.0"] ;
19 -> 23 ;
24 [label="Q_2 <= 0.332\nsquared_error = 0.25\nsamples = 6\nvalue = 85.5"] ;
18 -> 24 ;
25 [label="squared_error = 0.0\nsamples = 3\nvalue = 86.0"] ;
24 -> 25 ;
26 [label="squared_error = 0.0\nsamples = 3\nvalue = 85.0"] ;
24 -> 26 ;
27 [label="grade <= 89.5\nsquared_error = 0.469\nsamples = 9\nvalue = 89.444"] ;
17 -> 27 ;
28 [label="Q_5 <= 0.235\nsquared_error = 0.188\nsamples = 4\nvalue = 88.75"] ;
27 -> 28 ;
29 [label="squared_error = 0.0\nsamples = 1\nvalue = 88.0"] ;
28 -> 29 ;
30 [label="squared_error = 0.0\nsamples = 3\nvalue = 89.0"] ;
28 -> 30 ;
31 [label="squared_error = 0.0\nsamples = 5\nvalue = 90.0"] ;
27 -> 31 ;
32 [label="grade <= 96.5\nsquared_error = 6.771\nsamples = 67\nvalue = 97.224"] ;
6 -> 32 ;
33 [label="grade <= 94.5\nsquared_error = 1.92\nsamples = 25\nvalue = 94.2"] ;
32 -> 33 ;
34 [label="grade <= 92.5\nsquared_error = 0.84\nsamples = 13\nvalue = 93.077"] ;
33 -> 34 ;
35 [label="Q_2 <= 0.457\nsquared_error = 0.222\nsamples = 3\nvalue = 91.667"] ;
34 -> 35 ;
36 [label="squared_error = 0.0\nsamples = 1\nvalue = 91.0"] ;
35 -> 36 ;
37 [label="squared_error = 0.0\nsamples = 2\nvalue = 92.0"] ;
35 -> 37 ;
38 [label="grade <= 93.5\nsquared_error = 0.25\nsamples = 10\nvalue = 93.5"] ;
34 -> 38 ;
39 [label="squared_error = 0.0\nsamples = 5\nvalue = 93.0"] ;
38 -> 39 ;
40 [label="squared_error = 0.0\nsamples = 5\nvalue = 94.0"] ;
38 -> 40 ;
41 [label="grade <= 95.5\nsquared_error = 0.243\nsamples = 12\nvalue = 95.417"] ;
33 -> 41 ;
42 [label="squared_error = 0.0\nsamples = 7\nvalue = 95.0"] ;
41 -> 42 ;
43 [label="squared_error = 0.0\nsamples = 5\nvalue = 96.0"] ;
41 -> 43 ;
44 [label="grade <= 98.5\nsquared_error = 0.976\nsamples = 42\nvalue = 99.024"] ;
32 -> 44 ;
45 [label="grade <= 97.5\nsquared_error = 0.222\nsamples = 12\nvalue = 97.667"] ;
44 -> 45 ;
46 [label="squared_error = 0.0\nsamples = 4\nvalue = 97.0"] ;
45 -> 46 ;
47 [label="squared_error = 0.0\nsamples = 8\nvalue = 98.0"] ;
45 -> 47 ;
48 [label="grade <= 99.5\nsquared_error = 0.246\nsamples = 30\nvalue = 99.567"] ;
44 -> 48 ;
49 [label="squared_error = 0.0\nsamples = 13\nvalue = 99.0"] ;
48 -> 49 ;
50 [label="squared_error = 0.0\nsamples = 17\nvalue = 100.0"] ;
48 -> 50 ;
}
